<?xml version="1.0"?>
<opencv_storage>
<cascade>
  <stageType>BOOST</stageType>
  <featureType>LBP</featureType>
  <height>30</height>
  <width>40</width>
  <stageParams>
    <boostType>GAB</boostType>
    <minHitRate>9.9500000476837158e-01</minHitRate>
    <maxFalseAlarm>5.0000000000000000e-01</maxFalseAlarm>
    <weightTrimRate>9.4999999999999996e-01</weightTrimRate>
    <maxDepth>1</maxDepth>
    <maxWeakCount>100</maxWeakCount></stageParams>
  <featureParams>
    <maxCatCount>256</maxCatCount>
    <featSize>1</featSize></featureParams>
  <stageNum>4</stageNum>
  <stages>
    <!-- stage 0 -->
    <_>
      <maxWeakCount>1</maxWeakCount>
      <stageThreshold>9.8546844720840454e-01</stageThreshold>
      <weakClassifiers>
        <_>
          <internalNodes>
            0 -1 4 -1 -5 -175637505 -1 -2097153 -71312401 -21505 -20481</internalNodes>
          <leafValues>
            -9.9859869480133057e-01 9.8546844720840454e-01</leafValues></_></weakClassifiers></_>
    <!-- stage 1 -->
    <_>
      <maxWeakCount>2</maxWeakCount>
      <stageThreshold>-2.6541942730545998e-02</stageThreshold>
      <weakClassifiers>
        <_>
          <internalNodes>
            0 -1 3 -537395201 -2106369 -524289 -1061 -12583937 -2110465
            -67765249 -1</internalNodes>
          <leafValues>
            -9.9092179536819458e-01 9.8305082321166992e-01</leafValues></_>
        <_>
          <internalNodes>
            0 -1 5 -524289 -8705 -606470145 -2121857 -71827457 -271365
            -1049601 -129</internalNodes>
          <leafValues>
            -9.9122714996337891e-01 9.6437984704971313e-01</leafValues></_></weakClassifiers></_>
    <!-- stage 2 -->
    <_>
      <maxWeakCount>2</maxWeakCount>
      <stageThreshold>-5.3197573870420456e-02</stageThreshold>
      <weakClassifiers>
        <_>
          <internalNodes>
            0 -1 2 -17 -1 -2097169 -4337 -1 -5 -1 -1</internalNodes>
          <leafValues>
            -9.8840475082397461e-01 9.5060789585113525e-01</leafValues></_>
        <_>
          <internalNodes>
            0 -1 0 -1048577 -269484033 -1 -1 -1 -67109889 -262145 -1</internalNodes>
          <leafValues>
            -9.8735368251800537e-01 9.3520718812942505e-01</leafValues></_></weakClassifiers></_>
    <!-- stage 3 -->
    <_>
      <maxWeakCount>2</maxWeakCount>
      <stageThreshold>-3.1281597912311554e-02</stageThreshold>
      <weakClassifiers>
        <_>
          <internalNodes>
            0 -1 1 -10493957 -2621985 -2097665 -2097153 -1415593985
            -6580321 -2097153 -2097153</internalNodes>
          <leafValues>
            -9.8454785346984863e-01 9.4446557760238647e-01</leafValues></_>
        <_>
          <internalNodes>
            0 -1 6 -1 -8225 -67108865 -1 -67108865 -4194881 -1
            -134217729</internalNodes>
          <leafValues>
            -9.7574716806411743e-01 9.5419418811798096e-01</leafValues></_></weakClassifiers></_></stages>
  <features>
    <_>
      <rect>
        0 1 4 4</rect></_>
    <_>
      <rect>
        1 3 7 3</rect></_>
    <_>
      <rect>
        3 6 2 5</rect></_>
    <_>
      <rect>
        5 2 10 4</rect></_>
    <_>
      <rect>
        11 3 5 6</rect></_>
    <_>
      <rect>
        12 10 8 2</rect></_>
    <_>
      <rect>
        30 4 3 5</rect></_></features></cascade>
</opencv_storage>
